<?xml version="1.0"?>
<opencv_storage>
<!-- Created using Computer Vision System Toolbox(tm) for MATLAB(R) -->
<!-- Version 9.2.0.556344 (R2017a) -->
<!-- Compatible with OpenCV 3.1 -->
<cascade>
  <stageType>BOOST</stageType>
  <featureType>HOG</featureType>
  <height>32</height>
  <width>32</width>
  <stageParams>
    <boostType>GAB</boostType>
    <minHitRate>9.9500000476837158e-01</minHitRate>
    <maxFalseAlarm>5.0000000745058060e-02</maxFalseAlarm>
    <weightTrimRate>9.4999999999999996e-01</weightTrimRate>
    <maxDepth>1</maxDepth>
    <maxWeakCount>100</maxWeakCount></stageParams>
  <featureParams>
    <maxCatCount>0</maxCatCount>
    <featSize>36</featSize></featureParams>
  <stageNum>4</stageNum>
  <stages>
    <!-- stage 0 -->
    <_>
      <maxWeakCount>4</maxWeakCount>
      <stageThreshold>-6.4125761389732361e-02</stageThreshold>
      <weakClassifiers>
        <_>
          <internalNodes>
            0 -1 1 5.5432576686143875e-02</internalNodes>
          <leafValues>
            -8.4180790185928345e-01 9.7101449966430664e-01</leafValues></_>
        <_>
          <internalNodes>
            0 -1 13 1.6430698335170746e-02</internalNodes>
          <leafValues>
            7.8999400138854980e-01 -8.1493258476257324e-01</leafValues></_>
        <_>
          <internalNodes>
            0 -1 0 1.1002380400896072e-02</internalNodes>
          <leafValues>
            8.6013525724411011e-01 -7.5062537193298340e-01</leafValues></_>
        <_>
          <internalNodes>
            0 -1 22 1.9482843577861786e-02</internalNodes>
          <leafValues>
            8.2033312320709229e-01 -8.7244713306427002e-01</leafValues></_></weakClassifiers></_>
    <!-- stage 1 -->
    <_>
      <maxWeakCount>5</maxWeakCount>
      <stageThreshold>2.4458478391170502e-01</stageThreshold>
      <weakClassifiers>
        <_>
          <internalNodes>
            0 -1 4 5.2845396101474762e-02</internalNodes>
          <leafValues>
            -7.4725276231765747e-01 8.4375000000000000e-01</leafValues></_>
        <_>
          <internalNodes>
            0 -1 1 5.7785153388977051e-02</internalNodes>
          <leafValues>
            -7.1241694688796997e-01 7.5497579574584961e-01</leafValues></_>
        <_>
          <internalNodes>
            0 -1 18 1.5395293012261391e-02</internalNodes>
          <leafValues>
            7.2121161222457886e-01 -8.0521833896636963e-01</leafValues></_>
        <_>
          <internalNodes>
            0 -1 8 1.6552880406379700e-02</internalNodes>
          <leafValues>
            5.1217514276504517e-01 -8.7936609983444214e-01</leafValues></_>
        <_>
          <internalNodes>
            0 -1 2 2.4747647345066071e-02</internalNodes>
          <leafValues>
            5.2990496158599854e-01 -8.9723324775695801e-01</leafValues></_></weakClassifiers></_>
    <!-- stage 2 -->
    <_>
      <maxWeakCount>9</maxWeakCount>
      <stageThreshold>2.1039251983165741e-01</stageThreshold>
      <weakClassifiers>
        <_>
          <internalNodes>
            0 -1 17 3.4407824277877808e-02</internalNodes>
          <leafValues>
            -7.9487180709838867e-01 4.6666666865348816e-01</leafValues></_>
        <_>
          <internalNodes>
            0 -1 5 2.6302499696612358e-02</internalNodes>
          <leafValues>
            -8.0161100625991821e-01 3.5700231790542603e-01</leafValues></_>
        <_>
          <internalNodes>
            0 -1 20 3.5118613392114639e-02</internalNodes>
          <leafValues>
            -5.5074375867843628e-01 6.8066626787185669e-01</leafValues></_>
        <_>
          <internalNodes>
            0 -1 14 2.3476839065551758e-02</internalNodes>
          <leafValues>
            -7.5308948755264282e-01 4.8796230554580688e-01</leafValues></_>
        <_>
          <internalNodes>
            0 -1 3 3.3358417451381683e-02</internalNodes>
          <leafValues>
            -5.6204837560653687e-01 6.3298207521438599e-01</leafValues></_>
        <_>
          <internalNodes>
            0 -1 11 2.9624842107295990e-02</internalNodes>
          <leafValues>
            -6.1205959320068359e-01 6.1248618364334106e-01</leafValues></_>
        <_>
          <internalNodes>
            0 -1 7 2.6634365320205688e-02</internalNodes>
          <leafValues>
            -6.1692035198211670e-01 5.8602833747863770e-01</leafValues></_>
        <_>
          <internalNodes>
            0 -1 15 4.0365189313888550e-02</internalNodes>
          <leafValues>
            -5.6709814071655273e-01 5.9979099035263062e-01</leafValues></_>
        <_>
          <internalNodes>
            0 -1 6 6.1696618795394897e-03</internalNodes>
          <leafValues>
            6.7119079828262329e-01 -4.6639794111251831e-01</leafValues></_></weakClassifiers></_>
    <!-- stage 3 -->
    <_>
      <maxWeakCount>6</maxWeakCount>
      <stageThreshold>3.6401376128196716e-01</stageThreshold>
      <weakClassifiers>
        <_>
          <internalNodes>
            0 -1 9 3.6313883960247040e-02</internalNodes>
          <leafValues>
            -1.1111111193895340e-01 9.6825397014617920e-01</leafValues></_>
        <_>
          <internalNodes>
            0 -1 10 2.5988791137933731e-02</internalNodes>
          <leafValues>
            6.7431676387786865e-01 -5.8103954792022705e-01</leafValues></_>
        <_>
          <internalNodes>
            0 -1 16 1.9190145656466484e-02</internalNodes>
          <leafValues>
            7.0994824171066284e-01 -6.7910164594650269e-01</leafValues></_>
        <_>
          <internalNodes>
            0 -1 12 2.5642642751336098e-02</internalNodes>
          <leafValues>
            6.6091078519821167e-01 -6.8817651271820068e-01</leafValues></_>
        <_>
          <internalNodes>
            0 -1 21 3.2070443034172058e-02</internalNodes>
          <leafValues>
            -6.3053685426712036e-01 6.1906367540359497e-01</leafValues></_>
        <_>
          <internalNodes>
            0 -1 19 1.6432950273156166e-02</internalNodes>
          <leafValues>
            5.8473438024520874e-01 -8.0006468296051025e-01</leafValues></_></weakClassifiers></_></stages>
  <features>
    <_>
      <rect>
        0 0 8 8 5</rect></_>
    <_>
      <rect>
        0 4 8 8 1</rect></_>
    <_>
      <rect>
        0 4 8 8 4</rect></_>
    <_>
      <rect>
        0 8 8 8 25</rect></_>
    <_>
      <rect>
        0 16 8 8 6</rect></_>
    <_>
      <rect>
        4 0 8 8 2</rect></_>
    <_>
      <rect>
        4 0 8 8 7</rect></_>
    <_>
      <rect>
        4 8 8 8 0</rect></_>
    <_>
      <rect>
        8 0 8 8 9</rect></_>
    <_>
      <rect>
        12 0 8 8 3</rect></_>
    <_>
      <rect>
        16 0 8 8 17</rect></_>
    <_>
      <rect>
        16 4 8 8 16</rect></_>
    <_>
      <rect>
        16 12 8 8 31</rect></_>
    <_>
      <rect>
        0 0 8 16 18</rect></_>
    <_>
      <rect>
        0 0 8 16 23</rect></_>
    <_>
      <rect>
        0 0 8 16 31</rect></_>
    <_>
      <rect>
        4 0 8 16 9</rect></_>
    <_>
      <rect>
        12 0 8 16 15</rect></_>
    <_>
      <rect>
        16 0 8 16 11</rect></_>
    <_>
      <rect>
        16 0 8 16 33</rect></_>
    <_>
      <rect>
        0 4 16 8 35</rect></_>
    <_>
      <rect>
        0 16 16 8 6</rect></_>
    <_>
      <rect>
        0 16 16 8 34</rect></_></features></cascade>
</opencv_storage>
