<?xml version="1.0"?>
<opencv_storage>
<!-- Created using Computer Vision System Toolbox(tm) for MATLAB(R) -->
<!-- Version 9.2.0.556344 (R2017a) -->
<!-- Compatible with OpenCV 3.1 -->
<cascade>
  <stageType>BOOST</stageType>
  <featureType>HAAR</featureType>
  <height>32</height>
  <width>32</width>
  <stageParams>
    <boostType>GAB</boostType>
    <minHitRate>9.9500000476837158e-01</minHitRate>
    <maxFalseAlarm>1.9999999552965164e-02</maxFalseAlarm>
    <weightTrimRate>9.4999999999999996e-01</weightTrimRate>
    <maxDepth>1</maxDepth>
    <maxWeakCount>100</maxWeakCount></stageParams>
  <featureParams>
    <maxCatCount>0</maxCatCount>
    <featSize>1</featSize>
    <mode>BASIC</mode></featureParams>
  <stageNum>4</stageNum>
  <stages>
    <!-- stage 0 -->
    <_>
      <maxWeakCount>7</maxWeakCount>
      <stageThreshold>4.2163884639739990e-01</stageThreshold>
      <weakClassifiers>
        <_>
          <internalNodes>
            0 -1 4 -2.7046737074851990e-01</internalNodes>
          <leafValues>
            7.2972971200942993e-01 -7.9881656169891357e-01</leafValues></_>
        <_>
          <internalNodes>
            0 -1 6 -6.1941511929035187e-02</internalNodes>
          <leafValues>
            7.1029931306838989e-01 -7.0348471403121948e-01</leafValues></_>
        <_>
          <internalNodes>
            0 -1 10 1.3870900496840477e-02</internalNodes>
          <leafValues>
            -6.2814754247665405e-01 8.2699882984161377e-01</leafValues></_>
        <_>
          <internalNodes>
            0 -1 1 1.8434038758277893e-01</internalNodes>
          <leafValues>
            -7.3991739749908447e-01 7.9793107509613037e-01</leafValues></_>
        <_>
          <internalNodes>
            0 -1 16 8.2185165956616402e-04</internalNodes>
          <leafValues>
            6.2529283761978149e-01 -8.3231371641159058e-01</leafValues></_>
        <_>
          <internalNodes>
            0 -1 17 -5.3553219884634018e-02</internalNodes>
          <leafValues>
            5.4166918992996216e-01 -8.5364305973052979e-01</leafValues></_>
        <_>
          <internalNodes>
            0 -1 9 -3.4988977015018463e-02</internalNodes>
          <leafValues>
            7.1125900745391846e-01 -6.8794620037078857e-01</leafValues></_></weakClassifiers></_>
    <!-- stage 1 -->
    <_>
      <maxWeakCount>6</maxWeakCount>
      <stageThreshold>-1.0715147256851196e+00</stageThreshold>
      <weakClassifiers>
        <_>
          <internalNodes>
            0 -1 21 -9.9618434906005859e-03</internalNodes>
          <leafValues>
            4.7126436233520508e-01 -7.8205126523971558e-01</leafValues></_>
        <_>
          <internalNodes>
            0 -1 13 1.0322807729244232e-01</internalNodes>
          <leafValues>
            -4.6823957562446594e-01 9.7787827253341675e-01</leafValues></_>
        <_>
          <internalNodes>
            0 -1 2 4.6573553234338760e-02</internalNodes>
          <leafValues>
            -4.5013356208801270e-01 8.7048745155334473e-01</leafValues></_>
        <_>
          <internalNodes>
            0 -1 14 2.9973562050145119e-05</internalNodes>
          <leafValues>
            -7.2942394018173218e-01 5.7956147193908691e-01</leafValues></_>
        <_>
          <internalNodes>
            0 -1 18 -1.7490217578597367e-04</internalNodes>
          <leafValues>
            -9.1120588779449463e-01 3.7052288651466370e-01</leafValues></_>
        <_>
          <internalNodes>
            0 -1 11 9.7382366657257080e-02</internalNodes>
          <leafValues>
            -4.5830705761909485e-01 9.2328792810440063e-01</leafValues></_></weakClassifiers></_>
    <!-- stage 2 -->
    <_>
      <maxWeakCount>8</maxWeakCount>
      <stageThreshold>6.5049469470977783e-02</stageThreshold>
      <weakClassifiers>
        <_>
          <internalNodes>
            0 -1 23 1.4272005297243595e-02</internalNodes>
          <leafValues>
            -5.5339807271957397e-01 8.9189189672470093e-01</leafValues></_>
        <_>
          <internalNodes>
            0 -1 3 1.9572186283767223e-03</internalNodes>
          <leafValues>
            3.2876455783843994e-01 -9.1805863380432129e-01</leafValues></_>
        <_>
          <internalNodes>
            0 -1 24 4.3646513950079679e-04</internalNodes>
          <leafValues>
            3.0746871232986450e-01 -8.4949296712875366e-01</leafValues></_>
        <_>
          <internalNodes>
            0 -1 19 -1.5337517857551575e-01</internalNodes>
          <leafValues>
            8.3154684305191040e-01 -3.9507469534873962e-01</leafValues></_>
        <_>
          <internalNodes>
            0 -1 22 -2.0079719251953065e-04</internalNodes>
          <leafValues>
            -8.3919960260391235e-01 4.0467762947082520e-01</leafValues></_>
        <_>
          <internalNodes>
            0 -1 7 2.9246963560581207e-02</internalNodes>
          <leafValues>
            -6.0245674848556519e-01 5.4340386390686035e-01</leafValues></_>
        <_>
          <internalNodes>
            0 -1 5 7.8903441317379475e-04</internalNodes>
          <leafValues>
            4.1829299926757812e-01 -8.8339978456497192e-01</leafValues></_>
        <_>
          <internalNodes>
            0 -1 25 -9.0271746739745140e-04</internalNodes>
          <leafValues>
            -9.0476483106613159e-01 3.1260725855827332e-01</leafValues></_></weakClassifiers></_>
    <!-- stage 3 -->
    <_>
      <maxWeakCount>5</maxWeakCount>
      <stageThreshold>5.8681344985961914e-01</stageThreshold>
      <weakClassifiers>
        <_>
          <internalNodes>
            0 -1 12 3.2233567908406258e-03</internalNodes>
          <leafValues>
            -6.8421053886413574e-01 6.3043481111526489e-01</leafValues></_>
        <_>
          <internalNodes>
            0 -1 0 6.7533738911151886e-04</internalNodes>
          <leafValues>
            5.2775180339813232e-01 -8.7778073549270630e-01</leafValues></_>
        <_>
          <internalNodes>
            0 -1 8 1.3373645488172770e-03</internalNodes>
          <leafValues>
            -4.3872177600860596e-01 1.</leafValues></_>
        <_>
          <internalNodes>
            0 -1 20 2.6515295030549169e-04</internalNodes>
          <leafValues>
            4.6348813176155090e-01 -9.2666637897491455e-01</leafValues></_>
        <_>
          <internalNodes>
            0 -1 15 2.1209314465522766e-02</internalNodes>
          <leafValues>
            -5.5111026763916016e-01 7.1850579977035522e-01</leafValues></_></weakClassifiers></_></stages>
  <features>
    <_>
      <rects>
        <_>
          0 1 4 2 -1.</_>
        <_>
          0 2 4 1 2.</_></rects>
      <tilted>0</tilted></_>
    <_>
      <rects>
        <_>
          0 1 30 24 -1.</_>
        <_>
          10 1 10 24 3.</_></rects>
      <tilted>0</tilted></_>
    <_>
      <rects>
        <_>
          0 10 12 13 -1.</_>
        <_>
          4 10 4 13 3.</_></rects>
      <tilted>0</tilted></_>
    <_>
      <rects>
        <_>
          0 15 2 15 -1.</_>
        <_>
          0 20 2 5 3.</_></rects>
      <tilted>0</tilted></_>
    <_>
      <rects>
        <_>
          1 6 26 26 -1.</_>
        <_>
          1 19 26 13 2.</_></rects>
      <tilted>0</tilted></_>
    <_>
      <rects>
        <_>
          1 23 3 6 -1.</_>
        <_>
          1 25 3 2 3.</_></rects>
      <tilted>0</tilted></_>
    <_>
      <rects>
        <_>
          2 22 24 10 -1.</_>
        <_>
          2 27 24 5 2.</_></rects>
      <tilted>0</tilted></_>
    <_>
      <rects>
        <_>
          3 1 18 6 -1.</_>
        <_>
          9 1 6 6 3.</_></rects>
      <tilted>0</tilted></_>
    <_>
      <rects>
        <_>
          3 6 2 5 -1.</_>
        <_>
          4 6 1 5 2.</_></rects>
      <tilted>0</tilted></_>
    <_>
      <rects>
        <_>
          3 19 10 12 -1.</_>
        <_>
          3 25 10 6 2.</_></rects>
      <tilted>0</tilted></_>
    <_>
      <rects>
        <_>
          4 0 1 30 -1.</_>
        <_>
          4 10 1 10 3.</_></rects>
      <tilted>0</tilted></_>
    <_>
      <rects>
        <_>
          4 1 21 15 -1.</_>
        <_>
          4 6 21 5 3.</_></rects>
      <tilted>0</tilted></_>
    <_>
      <rects>
        <_>
          5 0 8 4 -1.</_>
        <_>
          5 2 8 2 2.</_></rects>
      <tilted>0</tilted></_>
    <_>
      <rects>
        <_>
          6 6 18 13 -1.</_>
        <_>
          12 6 6 13 3.</_></rects>
      <tilted>0</tilted></_>
    <_>
      <rects>
        <_>
          10 0 3 2 -1.</_>
        <_>
          10 1 3 1 2.</_></rects>
      <tilted>0</tilted></_>
    <_>
      <rects>
        <_>
          10 23 18 6 -1.</_>
        <_>
          16 23 6 6 3.</_></rects>
      <tilted>0</tilted></_>
    <_>
      <rects>
        <_>
          14 3 3 10 -1.</_>
        <_>
          15 3 1 10 3.</_></rects>
      <tilted>0</tilted></_>
    <_>
      <rects>
        <_>
          16 1 16 27 -1.</_>
        <_>
          24 1 8 27 2.</_></rects>
      <tilted>0</tilted></_>
    <_>
      <rects>
        <_>
          16 16 2 1 -1.</_>
        <_>
          17 16 1 1 2.</_></rects>
      <tilted>0</tilted></_>
    <_>
      <rects>
        <_>
          18 1 14 28 -1.</_>
        <_>
          25 1 7 28 2.</_></rects>
      <tilted>0</tilted></_>
    <_>
      <rects>
        <_>
          24 4 4 1 -1.</_>
        <_>
          26 4 2 1 2.</_></rects>
      <tilted>0</tilted></_>
    <_>
      <rects>
        <_>
          24 7 8 5 -1.</_>
        <_>
          28 7 4 5 2.</_></rects>
      <tilted>0</tilted></_>
    <_>
      <rects>
        <_>
          24 30 5 2 -1.</_>
        <_>
          24 31 5 1 2.</_></rects>
      <tilted>0</tilted></_>
    <_>
      <rects>
        <_>
          26 12 6 11 -1.</_>
        <_>
          28 12 2 11 3.</_></rects>
      <tilted>0</tilted></_>
    <_>
      <rects>
        <_>
          27 0 4 6 -1.</_>
        <_>
          27 0 2 3 2.</_>
        <_>
          29 3 2 3 2.</_></rects>
      <tilted>0</tilted></_>
    <_>
      <rects>
        <_>
          30 4 2 28 -1.</_>
        <_>
          30 4 1 14 2.</_>
        <_>
          31 18 1 14 2.</_></rects>
      <tilted>0</tilted></_></features></cascade>
</opencv_storage>
